const model = {
  "neuronCounts": [
    5,
    10,
    8
  ],
  "classes": [
    "car",
    "fish",
    "house",
    "tree",
    "bicycle",
    "guitar",
    "pencil",
    "clock"
  ],
  "network": {
    "levels": [
      {
        "weights": [
          [
            -1.2414475337443762,
            1.6598338973495392,
            1.4377765995214165,
            -2.54556265283832,
            0.8130862209094674,
            -0.02279704516011313,
            -0.18037780626024996,
            1.0456370673056714,
            0.12005885137058195,
            -1.488310824742029
          ],
          [
            0.34536429765266724,
            -1.0189173919407566,
            -0.7853009817308191,
            2.010081582704881,
            -2.629772521346397,
            0.814563042634388,
            -2.0874356862687042,
            -1.0004146200532262,
            -0.5959447537492375,
            -0.9169212854786613
          ],
          [
            2.0269343240220024,
            5.987438669750728,
            1.8856417181869405,
            1.468196710661083,
            1.1680693843896819,
            3.9134432577054445,
            -3.440602698675513,
            -6.655541738519934,
            5.53344182813693,
            5.395200874070875
          ],
          [
            -1.745784870396445,
            -1.8352874265741468,
            1.7235653693678785,
            1.455037863621214,
            1.6339002381382222,
            1.0322885325175417,
            1.3532339696670623,
            2.0924474100625674,
            0.24536122148431566,
            -0.12251635627878314
          ],
          [
            0.4098583715394982,
            1.2498619341933275,
            1.4398009180383287,
            -0.16953760271935386,
            -0.3652793991366458,
            1.9310062409426214,
            0.9123908419574899,
            0.9269995275000812,
            -5.374850639186507,
            -1.5302768409135876
          ]
        ],
        "biases": [
          0.42658139631907227,
          1.221498615435894,
          -1.8091089380413605,
          -1.3030736962621692,
          -0.7304310232845825,
          -0.6771245383009744,
          -0.24224386817010163,
          -1.4382404213259468,
          0.2719663240713598,
          0.1568015104473791
        ],
        "inputs": [
          0,
          0,
          0,
          0,
          0
        ],
        "outputs": [
          0,
          0,
          0,
          0,
          0,
          0,
          0,
          0,
          0,
          0
        ]
      },
      {
        "weights": [
          [
            -0.7999743666550342,
            -1.569231648470854,
            -0.16573363302092808,
            -0.9188866356952785,
            -0.65078848153799,
            0.9995677703129626,
            1.7806751662767388,
            0.13518216456082457
          ],
          [
            0.9482579926030751,
            1.7340352319954975,
            -0.6639153455107872,
            -1.7614295029768299,
            1.6251003794714036,
            1.8437869316710231,
            0.04559761401559156,
            -3.20202487400733
          ],
          [
            5.679286809008019,
            -1.8940668821875168,
            -3.337926065336652,
            -0.6557361327295187,
            -2.813195508078796,
            -0.4184086707509511,
            0.06469497573689155,
            5.8180639374405025
          ],
          [
            -1.2199731732119594,
            -1.5084733891074602,
            -0.533822080753111,
            2.6988757147533495,
            -2.941489694461886,
            -0.368216602161004,
            -1.1125085651173705,
            6.000275740103286
          ],
          [
            3.534557333971327,
            0.874533485767783,
            -1.0061771456503077,
            -3.7197587016352904,
            0.6085575358414058,
            0.7864931009984356,
            -2.7302057009173595,
            2.785863566689246
          ],
          [
            -0.3586504435623104,
            -0.8998363652405169,
            -0.3580179176113141,
            -0.06740336000356396,
            -0.2543443626842615,
            -1.3300955582130054,
            0.12078909091164673,
            4.499787080467902
          ],
          [
            1.0506571674799081,
            1.2546346600534377,
            1.5481750083585686,
            -1.4561851160872146,
            3.4743408415685377,
            -1.360997253670868,
            -2.534608434263947,
            0.027123083806289874
          ],
          [
            0.5166443109295277,
            0.04706344613755991,
            0.5791035548467225,
            2.8847540131296094,
            1.9591938762301029,
            -5.309771474964999,
            -0.28679254989420044,
            0.7829786210167462
          ],
          [
            1.6531362850205518,
            0.7854701659380352,
            -2.5379622230062946,
            2.308412941721013,
            -1.4748141375982937,
            -2.2380327144819483,
            0.9249425149022583,
            1.9701983467475686
          ],
          [
            -0.0891904049233235,
            1.007999533640725,
            -1.3984222846852423,
            -0.7286755471646943,
            -0.7336855806588213,
            -2.557814535609655,
            2.596413986412753,
            1.240579319806658
          ]
        ],
        "biases": [
          -1.158139364694635,
          0.8408541258472515,
          0.29641657426284146,
          -0.2619824888668719,
          -0.9862289156205453,
          -1.8998597337026968,
          -0.5272686100274423,
          1.2980897058605658
        ],
        "inputs": [
          0,
          0,
          0,
          0,
          0,
          0,
          0,
          0,
          0,
          0
        ],
        "outputs": [
          0,
          0,
          0,
          0,
          0,
          0,
          0,
          0
        ]
      }
    ]
  }
};